<?xml version="1.0"?>
<opencv_storage>
<nuzky type_id="opencv-haar-classifier">
  <size>
    20 20</size>
  <stages>
    <_>
      <trees>
        <_>
          <_>
            <feature>
              <rects>
                <_>
                  5 12 9 6 -1.</_>
                <_>
                  5 15 9 3 2.</_></rects>
              <tilted>0</tilted></feature>
            <threshold>0.0102048497647047</threshold>
            <left_val>-0.8919544816017151</left_val>
            <right_node>1</right_node></_>
          <_>
            <feature>
              <rects>
                <_>
                  5 16 5 4 -1.</_>
                <_>
                  5 18 5 2 2.</_></rects>
              <tilted>0</tilted></feature>
            <threshold>-2.1580280736088753e-003</threshold>
            <left_val>-0.7913120985031128</left_val>
            <right_val>0.9210599064826965</right_val></_></_>
        <_>
          <_>
            <feature>
              <rects>
                <_>
                  10 8 2 10 -1.</_>
                <_>
                  10 8 2 5 2.</_></rects>
              <tilted>1</tilted></feature>
            <threshold>-3.3485000021755695e-003</threshold>
            <left_node>1</left_node>
            <right_val>-0.7980161905288696</right_val></_>
          <_>
            <feature>
              <rects>
                <_>
                  15 0 2 1 -1.</_>
                <_>
                  16 0 1 1 2.</_></rects>
              <tilted>0</tilted></feature>
            <threshold>-2.8929550899192691e-004</threshold>
            <left_val>-0.8927469849586487</left_val>
            <right_val>0.8625348210334778</right_val></_></_></trees>
      <stage_threshold>-0.0294196605682373</stage_threshold>
      <parent>-1</parent>
      <next>-1</next></_>
    <_>
      <trees>
        <_>
          <_>
            <feature>
              <rects>
                <_>
                  10 6 10 8 -1.</_>
                <_>
                  15 6 5 8 2.</_></rects>
              <tilted>0</tilted></feature>
            <threshold>0.0386177413165569</threshold>
            <left_node>1</left_node>
            <right_val>0.6466374993324280</right_val></_>
          <_>
            <feature>
              <rects>
                <_>
                  4 0 12 17 -1.</_>
                <_>
                  8 0 4 17 3.</_></rects>
              <tilted>0</tilted></feature>
            <threshold>0.1514274030923843</threshold>
            <left_val>-0.9292116761207581</left_val>
            <right_val>0.8664882183074951</right_val></_></_>
        <_>
          <_>
            <feature>
              <rects>
                <_>
                  4 12 11 8 -1.</_>
                <_>
                  4 16 11 4 2.</_></rects>
              <tilted>0</tilted></feature>
            <threshold>0.0342634283006191</threshold>
            <left_val>-0.9079396128654480</left_val>
            <right_node>1</right_node></_>
          <_>
            <feature>
              <rects>
                <_>
                  4 14 9 6 -1.</_>
                <_>
                  7 14 3 6 3.</_></rects>
              <tilted>0</tilted></feature>
            <threshold>9.9753029644489288e-005</threshold>
            <left_val>-0.8567711710929871</left_val>
            <right_val>0.6539263725280762</right_val></_></_>
        <_>
          <_>
            <feature>
              <rects>
                <_>
                  4 0 13 8 -1.</_>
                <_>
                  4 4 13 4 2.</_></rects>
              <tilted>0</tilted></feature>
            <threshold>-0.0259761996567249</threshold>
            <left_node>1</left_node>
            <right_val>-0.9142845273017883</right_val></_>
          <_>
            <feature>
              <rects>
                <_>
                  9 16 6 4 -1.</_>
                <_>
                  9 18 6 2 2.</_></rects>
              <tilted>0</tilted></feature>
            <threshold>-3.3327979035675526e-003</threshold>
            <left_val>-0.9173926115036011</left_val>
            <right_val>0.8610265851020813</right_val></_></_>
        <_>
          <_>
            <feature>
              <rects>
                <_>
                  13 6 6 10 -1.</_>
                <_>
                  16 6 3 10 2.</_></rects>
              <tilted>0</tilted></feature>
            <threshold>3.9693000726401806e-003</threshold>
            <left_val>-0.9683871269226074</left_val>
            <right_node>1</right_node></_>
          <_>
            <feature>
              <rects>
                <_>
                  12 5 6 9 -1.</_>
                <_>
                  14 8 2 3 9.</_></rects>
              <tilted>0</tilted></feature>
            <threshold>1.6724099623388611e-005</threshold>
            <left_val>-0.8293687105178833</left_val>
            <right_val>0.8235251903533936</right_val></_></_></trees>
      <stage_threshold>-0.4461973905563355</stage_threshold>
      <parent>0</parent>
      <next>-1</next></_>
    <_>
      <trees>
        <_>
          <_>
            <feature>
              <rects>
                <_>
                  0 2 8 12 -1.</_>
                <_>
                  4 2 4 12 2.</_></rects>
              <tilted>0</tilted></feature>
            <threshold>-0.0284890998154879</threshold>
            <left_val>0.8040956258773804</left_val>
            <right_node>1</right_node></_>
          <_>
            <feature>
              <rects>
                <_>
                  1 4 12 4 -1.</_>
                <_>
                  5 4 4 4 3.</_></rects>
              <tilted>0</tilted></feature>
            <threshold>0.0373392514884472</threshold>
            <left_val>-1.</left_val>
            <right_val>0.6297038197517395</right_val></_></_>
        <_>
          <_>
            <feature>
              <rects>
                <_>
                  5 11 10 8 -1.</_>
                <_>
                  5 15 10 4 2.</_></rects>
              <tilted>0</tilted></feature>
            <threshold>0.0274604093283415</threshold>
            <left_node>1</left_node>
            <right_val>0.5341107845306397</right_val></_>
          <_>
            <feature>
              <rects>
                <_>
                  3 7 6 12 -1.</_>
                <_>
                  3 7 3 6 2.</_>
                <_>
                  6 13 3 6 2.</_></rects>
              <tilted>0</tilted></feature>
            <threshold>-0.0367177017033100</threshold>
            <left_val>1.</left_val>
            <right_val>-0.9404352903366089</right_val></_></_>
        <_>
          <_>
            <feature>
              <rects>
                <_>
                  0 8 20 4 -1.</_>
                <_>
                  5 8 10 4 2.</_></rects>
              <tilted>0</tilted></feature>
            <threshold>-0.0505793392658234</threshold>
            <left_node>1</left_node>
            <right_val>-0.9487674832344055</right_val></_>
          <_>
            <feature>
              <rects>
                <_>
                  8 18 3 2 -1.</_>
                <_>
                  9 18 1 2 3.</_></rects>
              <tilted>0</tilted></feature>
            <threshold>-5.3117191419005394e-004</threshold>
            <left_val>-1.</left_val>
            <right_val>0.7986320257186890</right_val></_></_>
        <_>
          <_>
            <feature>
              <rects>
                <_>
                  2 14 15 2 -1.</_>
                <_>
                  7 14 5 2 3.</_></rects>
              <tilted>0</tilted></feature>
            <threshold>0.0118455402553082</threshold>
            <left_node>1</left_node>
            <right_val>0.8003545999526978</right_val></_>
          <_>
            <feature>
              <rects>
                <_>
                  5 3 9 15 -1.</_>
                <_>
                  8 3 3 15 3.</_></rects>
              <tilted>0</tilted></feature>
            <threshold>-0.0832390114665031</threshold>
            <left_val>1.</left_val>
            <right_val>-0.7224835157394409</right_val></_></_>
        <_>
          <_>
            <feature>
              <rects>
                <_>
                  10 10 3 4 -1.</_>
                <_>
                  11 11 1 4 3.</_></rects>
              <tilted>1</tilted></feature>
            <threshold>5.0172289775218815e-005</threshold>
            <left_node>1</left_node>
            <right_val>0.6410505175590515</right_val></_>
          <_>
            <feature>
              <rects>
                <_>
                  7 1 12 1 -1.</_>
                <_>
                  11 1 4 1 3.</_></rects>
              <tilted>0</tilted></feature>
            <threshold>0.0109005998820066</threshold>
            <left_val>-1.</left_val>
            <right_val>1.0000009536743164</right_val></_></_>
        <_>
          <_>
            <feature>
              <rects>
                <_>
                  6 5 8 6 -1.</_>
                <_>
                  8 7 4 6 2.</_></rects>
              <tilted>1</tilted></feature>
            <threshold>0.0291143804788589</threshold>
            <left_val>-1.</left_val>
            <right_node>1</right_node></_>
          <_>
            <feature>
              <rects>
                <_>
                  0 0 2 6 -1.</_>
                <_>
                  0 0 1 3 2.</_>
                <_>
                  1 3 1 3 2.</_></rects>
              <tilted>0</tilted></feature>
            <threshold>1.8875940440921113e-005</threshold>
            <left_val>-1.</left_val>
            <right_val>1.0000089406967163</right_val></_></_>
        <_>
          <_>
            <feature>
              <rects>
                <_>
                  0 0 2 1 -1.</_>
                <_>
                  1 0 1 1 2.</_></rects>
              <tilted>0</tilted></feature>
            <threshold>0.</threshold>
            <left_val>0.</left_val>
            <right_val>-1.</right_val></_></_>
        <_>
          <_>
            <feature>
              <rects>
                <_>
                  18 0 2 8 -1.</_>
                <_>
                  18 0 2 4 2.</_></rects>
              <tilted>1</tilted></feature>
            <threshold>7.5940799433737993e-004</threshold>
            <left_val>-1.</left_val>
            <right_val>1.</right_val></_></_>
        <_>
          <_>
            <feature>
              <rects>
                <_>
                  0 0 2 1 -1.</_>
                <_>
                  1 0 1 1 2.</_></rects>
              <tilted>0</tilted></feature>
            <threshold>0.</threshold>
            <left_val>0.</left_val>
            <right_val>-1.</right_val></_></_>
        <_>
          <_>
            <feature>
              <rects>
                <_>
                  3 0 8 20 -1.</_>
                <_>
                  3 5 8 10 2.</_></rects>
              <tilted>0</tilted></feature>
            <threshold>-6.2004788778722286e-003</threshold>
            <left_val>1.</left_val>
            <right_node>1</right_node></_>
          <_>
            <feature>
              <rects>
                <_>
                  0 0 4 2 -1.</_>
                <_>
                  1 0 2 2 2.</_></rects>
              <tilted>0</tilted></feature>
            <threshold>2.0085589494556189e-003</threshold>
            <left_val>-1.</left_val>
            <right_val>1.0000510215759277</right_val></_></_>
        <_>
          <_>
            <feature>
              <rects>
                <_>
                  0 0 2 1 -1.</_>
                <_>
                  1 0 1 1 2.</_></rects>
              <tilted>0</tilted></feature>
            <threshold>0.</threshold>
            <left_val>0.</left_val>
            <right_val>-1.</right_val></_></_>
        <_>
          <_>
            <feature>
              <rects>
                <_>
                  4 1 16 3 -1.</_>
                <_>
                  8 5 8 3 2.</_></rects>
              <tilted>1</tilted></feature>
            <threshold>-1.9279220141470432e-003</threshold>
            <left_node>1</left_node>
            <right_val>-0.9932150244712830</right_val></_>
          <_>
            <feature>
              <rects>
                <_>
                  0 0 8 19 -1.</_>
                <_>
                  2 0 4 19 2.</_></rects>
              <tilted>0</tilted></feature>
            <threshold>0.0861794501543045</threshold>
            <left_val>1.</left_val>
            <right_val>-1.0000139474868774</right_val></_></_>
        <_>
          <_>
            <feature>
              <rects>
                <_>
                  10 5 9 9 -1.</_>
                <_>
                  10 8 9 3 3.</_></rects>
              <tilted>0</tilted></feature>
            <threshold>0.0206360109150410</threshold>
            <left_node>1</left_node>
            <right_val>0.8339139223098755</right_val></_>
          <_>
            <feature>
              <rects>
                <_>
                  0 0 12 4 -1.</_>
                <_>
                  0 1 12 2 2.</_></rects>
              <tilted>0</tilted></feature>
            <threshold>8.8191330432891846e-003</threshold>
            <left_val>1.</left_val>
            <right_val>-1.</right_val></_></_>
        <_>
          <_>
            <feature>
              <rects>
                <_>
                  5 11 4 5 -1.</_>
                <_>
                  6 12 2 5 2.</_></rects>
              <tilted>1</tilted></feature>
            <threshold>0.0206205099821091</threshold>
            <left_node>1</left_node>
            <right_val>1.0000079870223999</right_val></_>
          <_>
            <feature>
              <rects>
                <_>
                  0 2 20 12 -1.</_>
                <_>
                  10 2 10 12 2.</_></rects>
              <tilted>0</tilted></feature>
            <threshold>0.4055100977420807</threshold>
            <left_val>-1.</left_val>
            <right_val>1.0000189542770386</right_val></_></_>
        <_>
          <_>
            <feature>
              <rects>
                <_>
                  0 0 2 1 -1.</_>
                <_>
                  1 0 1 1 2.</_></rects>
              <tilted>0</tilted></feature>
            <threshold>0.</threshold>
            <left_val>0.</left_val>
            <right_val>-1.</right_val></_></_>
        <_>
          <_>
            <feature>
              <rects>
                <_>
                  7 11 8 8 -1.</_>
                <_>
                  7 15 8 4 2.</_></rects>
              <tilted>0</tilted></feature>
            <threshold>6.8206973082851619e-005</threshold>
            <left_val>-1.</left_val>
            <right_node>1</right_node></_>
          <_>
            <feature>
              <rects>
                <_>
                  7 11 8 8 -1.</_>
                <_>
                  7 15 8 4 2.</_></rects>
              <tilted>0</tilted></feature>
            <threshold>6.8206973082851619e-005</threshold>
            <left_val>-1.</left_val>
            <right_val>1.0000020265579224</right_val></_></_>
        <_>
          <_>
            <feature>
              <rects>
                <_>
                  0 2 15 15 -1.</_>
                <_>
                  5 7 5 5 9.</_></rects>
              <tilted>0</tilted></feature>
            <threshold>0.1668186038732529</threshold>
            <left_val>-1.</left_val>
            <right_node>1</right_node></_>
          <_>
            <feature>
              <rects>
                <_>
                  4 7 16 4 -1.</_>
                <_>
                  12 7 8 4 2.</_></rects>
              <tilted>0</tilted></feature>
            <threshold>0.0153694404289126</threshold>
            <left_val>-1.</left_val>
            <right_val>1.0000590085983276</right_val></_></_>
        <_>
          <_>
            <feature>
              <rects>
                <_>
                  0 0 2 1 -1.</_>
                <_>
                  1 0 1 1 2.</_></rects>
              <tilted>0</tilted></feature>
            <threshold>0.</threshold>
            <left_val>0.</left_val>
            <right_val>-1.</right_val></_></_>
        <_>
          <_>
            <feature>
              <rects>
                <_>
                  3 8 17 12 -1.</_>
                <_>
                  3 14 17 6 2.</_></rects>
              <tilted>0</tilted></feature>
            <threshold>7.9933757660910487e-004</threshold>
            <left_val>-1.</left_val>
            <right_val>1.</right_val></_></_>
        <_>
          <_>
            <feature>
              <rects>
                <_>
                  0 0 7 2 -1.</_>
                <_>
                  0 1 7 1 2.</_></rects>
              <tilted>0</tilted></feature>
            <threshold>3.8175890222191811e-003</threshold>
            <left_val>-1.</left_val>
            <right_node>1</right_node></_>
          <_>
            <feature>
              <rects>
                <_>
                  0 0 3 1 -1.</_>
                <_>
                  1 0 1 1 3.</_></rects>
              <tilted>0</tilted></feature>
            <threshold>6.8171240855008364e-005</threshold>
            <left_val>-1.</left_val>
            <right_val>1.</right_val></_></_>
        <_>
          <_>
            <feature>
              <rects>
                <_>
                  0 0 2 1 -1.</_>
                <_>
                  1 0 1 1 2.</_></rects>
              <tilted>0</tilted></feature>
            <threshold>0.</threshold>
            <left_val>0.</left_val>
            <right_val>-1.</right_val></_></_>
        <_>
          <_>
            <feature>
              <rects>
                <_>
                  3 0 15 18 -1.</_>
                <_>
                  8 6 5 6 9.</_></rects>
              <tilted>0</tilted></feature>
            <threshold>-4.3723750859498978e-003</threshold>
            <left_val>1.</left_val>
            <right_node>1</right_node></_>
          <_>
            <feature>
              <rects>
                <_>
                  0 0 2 1 -1.</_>
                <_>
                  1 0 1 1 2.</_></rects>
              <tilted>0</tilted></feature>
            <threshold>0.</threshold>
            <left_val>0.</left_val>
            <right_val>-1.</right_val></_></_>
        <_>
          <_>
            <feature>
              <rects>
                <_>
                  12 8 8 8 -1.</_>
                <_>
                  16 8 4 8 2.</_></rects>
              <tilted>0</tilted></feature>
            <threshold>2.2373140382114798e-005</threshold>
            <left_node>1</left_node>
            <right_val>1.</right_val></_>
          <_>
            <feature>
              <rects>
                <_>
                  0 0 2 1 -1.</_>
                <_>
                  1 0 1 1 2.</_></rects>
              <tilted>0</tilted></feature>
            <threshold>-1.8302459502592683e-003</threshold>
            <left_val>-1.</left_val>
            <right_val>1.</right_val></_></_>
        <_>
          <_>
            <feature>
              <rects>
                <_>
                  4 7 16 6 -1.</_>
                <_>
                  12 7 8 6 2.</_></rects>
              <tilted>0</tilted></feature>
            <threshold>0.0711465775966644</threshold>
            <left_val>-1.</left_val>
            <right_node>1</right_node></_>
          <_>
            <feature>
              <rects>
                <_>
                  4 7 16 6 -1.</_>
                <_>
                  12 7 8 6 2.</_></rects>
              <tilted>0</tilted></feature>
            <threshold>0.0711465775966644</threshold>
            <left_val>-1.</left_val>
            <right_val>1.0000309944152832</right_val></_></_>
        <_>
          <_>
            <feature>
              <rects>
                <_>
                  0 0 2 1 -1.</_>
                <_>
                  1 0 1 1 2.</_></rects>
              <tilted>0</tilted></feature>
            <threshold>0.</threshold>
            <left_val>0.</left_val>
            <right_val>-1.</right_val></_></_>
        <_>
          <_>
            <feature>
              <rects>
                <_>
                  0 0 15 20 -1.</_>
                <_>
                  5 0 5 20 3.</_></rects>
              <tilted>0</tilted></feature>
            <threshold>3.4394438844174147e-003</threshold>
            <left_val>-1.</left_val>
            <right_node>1</right_node></_>
          <_>
            <feature>
              <rects>
                <_>
                  0 0 15 20 -1.</_>
                <_>
                  5 0 5 20 3.</_></rects>
              <tilted>0</tilted></feature>
            <threshold>3.4394438844174147e-003</threshold>
            <left_val>-1.</left_val>
            <right_val>1.</right_val></_></_>
        <_>
          <_>
            <feature>
              <rects>
                <_>
                  0 0 3 18 -1.</_>
                <_>
                  1 6 1 6 9.</_></rects>
              <tilted>0</tilted></feature>
            <threshold>3.7959809415042400e-003</threshold>
            <left_val>-1.</left_val>
            <right_node>1</right_node></_>
          <_>
            <feature>
              <rects>
                <_>
                  0 0 3 18 -1.</_>
                <_>
                  1 6 1 6 9.</_></rects>
              <tilted>0</tilted></feature>
            <threshold>3.7959809415042400e-003</threshold>
            <left_val>-1.</left_val>
            <right_val>1.0000170469284058</right_val></_></_>
        <_>
          <_>
            <feature>
              <rects>
                <_>
                  0 0 2 1 -1.</_>
                <_>
                  1 0 1 1 2.</_></rects>
              <tilted>0</tilted></feature>
            <threshold>0.</threshold>
            <left_val>0.</left_val>
            <right_val>-1.</right_val></_></_>
        <_>
          <_>
            <feature>
              <rects>
                <_>
                  9 7 1 8 -1.</_>
                <_>
                  9 7 1 4 2.</_></rects>
              <tilted>1</tilted></feature>
            <threshold>-1.4122989960014820e-003</threshold>
            <left_val>1.</left_val>
            <right_node>1</right_node></_>
          <_>
            <feature>
              <rects>
                <_>
                  0 0 2 1 -1.</_>
                <_>
                  1 0 1 1 2.</_></rects>
              <tilted>0</tilted></feature>
            <threshold>0.</threshold>
            <left_val>0.</left_val>
            <right_val>-1.</right_val></_></_>
        <_>
          <_>
            <feature>
              <rects>
                <_>
                  5 0 15 2 -1.</_>
                <_>
                  10 5 5 2 3.</_></rects>
              <tilted>1</tilted></feature>
            <threshold>-8.5145691409707069e-003</threshold>
            <left_node>1</left_node>
            <right_val>-0.9999995231628418</right_val></_>
          <_>
            <feature>
              <rects>
                <_>
                  2 0 11 20 -1.</_>
                <_>
                  2 5 11 10 2.</_></rects>
              <tilted>0</tilted></feature>
            <threshold>-0.0558833815157413</threshold>
            <left_val>1.</left_val>
            <right_val>-1.0000050067901611</right_val></_></_>
        <_>
          <_>
            <feature>
              <rects>
                <_>
                  12 8 6 4 -1.</_>
                <_>
                  12 9 6 2 2.</_></rects>
              <tilted>0</tilted></feature>
            <threshold>2.2373140382114798e-005</threshold>
            <left_node>1</left_node>
            <right_val>0.9653419256210327</right_val></_>
          <_>
            <feature>
              <rects>
                <_>
                  0 0 2 17 -1.</_>
                <_>
                  1 0 1 17 2.</_></rects>
              <tilted>0</tilted></feature>
            <threshold>9.1068778419867158e-004</threshold>
            <left_val>1.</left_val>
            <right_val>-1.</right_val></_></_>
        <_>
          <_>
            <feature>
              <rects>
                <_>
                  15 3 2 15 -1.</_>
                <_>
                  15 8 2 5 3.</_></rects>
              <tilted>0</tilted></feature>
            <threshold>0.0101801399141550</threshold>
            <left_val>-1.</left_val>
            <right_node>1</right_node></_>
          <_>
            <feature>
              <rects>
                <_>
                  7 0 1 16 -1.</_>
                <_>
                  7 4 1 8 2.</_></rects>
              <tilted>0</tilted></feature>
            <threshold>2.0359558984637260e-003</threshold>
            <left_val>-1.</left_val>
            <right_val>1.0000430345535278</right_val></_></_>
        <_>
          <_>
            <feature>
              <rects>
                <_>
                  0 0 2 1 -1.</_>
                <_>
                  1 0 1 1 2.</_></rects>
              <tilted>0</tilted></feature>
            <threshold>0.</threshold>
            <left_val>0.</left_val>
            <right_val>-1.</right_val></_></_>
        <_>
          <_>
            <feature>
              <rects>
                <_>
                  12 5 8 13 -1.</_>
                <_>
                  16 5 4 13 2.</_></rects>
              <tilted>0</tilted></feature>
            <threshold>2.0068909507244825e-003</threshold>
            <left_val>-1.</left_val>
            <right_node>1</right_node></_>
          <_>
            <feature>
              <rects>
                <_>
                  12 5 8 13 -1.</_>
                <_>
                  16 5 4 13 2.</_></rects>
              <tilted>0</tilted></feature>
            <threshold>2.0068909507244825e-003</threshold>
            <left_val>-1.</left_val>
            <right_val>1.0000020265579224</right_val></_></_>
        <_>
          <_>
            <feature>
              <rects>
                <_>
                  0 0 2 1 -1.</_>
                <_>
                  1 0 1 1 2.</_></rects>
              <tilted>0</tilted></feature>
            <threshold>0.</threshold>
            <left_val>0.</left_val>
            <right_val>-1.</right_val></_></_>
        <_>
          <_>
            <feature>
              <rects>
                <_>
                  19 0 1 8 -1.</_>
                <_>
                  19 0 1 4 2.</_></rects>
              <tilted>1</tilted></feature>
            <threshold>4.7001239727251232e-004</threshold>
            <left_val>-1.</left_val>
            <right_node>1</right_node></_>
          <_>
            <feature>
              <rects>
                <_>
                  12 0 1 20 -1.</_>
                <_>
                  12 5 1 10 2.</_></rects>
              <tilted>0</tilted></feature>
            <threshold>-5.2860402502119541e-004</threshold>
            <left_val>1.</left_val>
            <right_val>-1.</right_val></_></_>
        <_>
          <_>
            <feature>
              <rects>
                <_>
                  11 8 4 4 -1.</_>
                <_>
                  11 9 4 2 2.</_></rects>
              <tilted>0</tilted></feature>
            <threshold>5.7398370699957013e-004</threshold>
            <left_node>1</left_node>
            <right_val>1.0000120401382446</right_val></_>
          <_>
            <feature>
              <rects>
                <_>
                  5 1 2 4 -1.</_>
                <_>
                  5 3 2 2 2.</_></rects>
              <tilted>0</tilted></feature>
            <threshold>-2.7121690800413489e-004</threshold>
            <left_val>-1.</left_val>
            <right_val>1.0000009536743164</right_val></_></_>
        <_>
          <_>
            <feature>
              <rects>
                <_>
                  1 0 5 20 -1.</_>
                <_>
                  1 5 5 10 2.</_></rects>
              <tilted>0</tilted></feature>
            <threshold>3.1762248836457729e-003</threshold>
            <left_val>-1.</left_val>
            <right_node>1</right_node></_>
          <_>
            <feature>
              <rects>
                <_>
                  0 0 7 4 -1.</_>
                <_>
                  0 1 7 2 2.</_></rects>
              <tilted>0</tilted></feature>
            <threshold>8.7869928393047303e-005</threshold>
            <left_val>-1.</left_val>
            <right_val>1.0000829696655273</right_val></_></_>
        <_>
          <_>
            <feature>
              <rects>
                <_>
                  0 0 3 1 -1.</_>
                <_>
                  1 0 1 1 3.</_></rects>
              <tilted>0</tilted></feature>
            <threshold>4.9735349602997303e-004</threshold>
            <left_val>-1.</left_val>
            <right_node>1</right_node></_>
          <_>
            <feature>
              <rects>
                <_>
                  0 0 3 1 -1.</_>
                <_>
                  1 0 1 1 3.</_></rects>
              <tilted>0</tilted></feature>
            <threshold>4.9735349602997303e-004</threshold>
            <left_val>-1.</left_val>
            <right_val>1.0000400543212891</right_val></_></_>
        <_>
          <_>
            <feature>
              <rects>
                <_>
                  0 0 2 1 -1.</_>
                <_>
                  1 0 1 1 2.</_></rects>
              <tilted>0</tilted></feature>
            <threshold>0.</threshold>
            <left_val>0.</left_val>
            <right_val>-1.</right_val></_></_>
        <_>
          <_>
            <feature>
              <rects>
                <_>
                  3 11 13 6 -1.</_>
                <_>
                  3 14 13 3 2.</_></rects>
              <tilted>0</tilted></feature>
            <threshold>1.1081709526479244e-003</threshold>
            <left_val>-1.</left_val>
            <right_val>1.</right_val></_></_>
        <_>
          <_>
            <feature>
              <rects>
                <_>
                  0 0 3 6 -1.</_>
                <_>
                  1 2 1 2 9.</_></rects>
              <tilted>0</tilted></feature>
            <threshold>1.1670599924400449e-003</threshold>
            <left_val>-1.</left_val>
            <right_val>1.</right_val></_></_>
        <_>
          <_>
            <feature>
              <rects>
                <_>
                  0 0 2 1 -1.</_>
                <_>
                  1 0 1 1 2.</_></rects>
              <tilted>0</tilted></feature>
            <threshold>0.</threshold>
            <left_val>0.</left_val>
            <right_val>-1.</right_val></_></_>
        <_>
          <_>
            <feature>
              <rects>
                <_>
                  1 0 10 1 -1.</_>
                <_>
                  1 0 5 1 2.</_></rects>
              <tilted>1</tilted></feature>
            <threshold>1.8806180451065302e-003</threshold>
            <left_val>-1.</left_val>
            <right_val>1.</right_val></_></_>
        <_>
          <_>
            <feature>
              <rects>
                <_>
                  0 0 2 1 -1.</_>
                <_>
                  1 0 1 1 2.</_></rects>
              <tilted>0</tilted></feature>
            <threshold>0.</threshold>
            <left_val>0.</left_val>
            <right_val>-1.</right_val></_></_>
        <_>
          <_>
            <feature>
              <rects>
                <_>
                  14 6 6 12 -1.</_>
                <_>
                  17 6 3 12 2.</_></rects>
              <tilted>0</tilted></feature>
            <threshold>6.9382942456286401e-005</threshold>
            <left_val>-1.</left_val>
            <right_node>1</right_node></_>
          <_>
            <feature>
              <rects>
                <_>
                  14 6 6 12 -1.</_>
                <_>
                  17 6 3 12 2.</_></rects>
              <tilted>0</tilted></feature>
            <threshold>6.9382942456286401e-005</threshold>
            <left_val>-1.</left_val>
            <right_val>1.0000009536743164</right_val></_></_>
        <_>
          <_>
            <feature>
              <rects>
                <_>
                  0 0 2 1 -1.</_>
                <_>
                  1 0 1 1 2.</_></rects>
              <tilted>0</tilted></feature>
            <threshold>0.</threshold>
            <left_val>0.</left_val>
            <right_val>-1.</right_val></_></_>
        <_>
          <_>
            <feature>
              <rects>
                <_>
                  10 9 10 9 -1.</_>
                <_>
                  15 9 5 9 2.</_></rects>
              <tilted>0</tilted></feature>
            <threshold>3.3880871342262253e-005</threshold>
            <left_val>-1.</left_val>
            <right_node>1</right_node></_>
          <_>
            <feature>
              <rects>
                <_>
                  12 8 8 6 -1.</_>
                <_>
                  16 8 4 6 2.</_></rects>
              <tilted>0</tilted></feature>
            <threshold>3.7268959567882121e-004</threshold>
            <left_val>-0.9881808161735535</left_val>
            <right_val>0.9999995827674866</right_val></_></_>
        <_>
          <_>
            <feature>
              <rects>
                <_>
                  0 0 19 3 -1.</_>
                <_>
                  0 1 19 1 3.</_></rects>
              <tilted>0</tilted></feature>
            <threshold>5.8660417562350631e-004</threshold>
            <left_val>-1.</left_val>
            <right_node>1</right_node></_>
          <_>
            <feature>
              <rects>
                <_>
                  0 0 4 16 -1.</_>
                <_>
                  2 0 2 16 2.</_></rects>
              <tilted>0</tilted></feature>
            <threshold>-2.9875768814235926e-004</threshold>
            <left_val>1.</left_val>
            <right_val>-1.</right_val></_></_>
        <_>
          <_>
            <feature>
              <rects>
                <_>
                  1 0 10 1 -1.</_>
                <_>
                  1 0 5 1 2.</_></rects>
              <tilted>1</tilted></feature>
            <threshold>1.8806180451065302e-003</threshold>
            <left_val>-1.</left_val>
            <right_val>1.</right_val></_></_>
        <_>
          <_>
            <feature>
              <rects>
                <_>
                  0 0 2 1 -1.</_>
                <_>
                  1 0 1 1 2.</_></rects>
              <tilted>0</tilted></feature>
            <threshold>0.</threshold>
            <left_val>0.</left_val>
            <right_val>-1.</right_val></_></_>
        <_>
          <_>
            <feature>
              <rects>
                <_>
                  8 8 12 3 -1.</_>
                <_>
                  11 8 6 3 2.</_></rects>
              <tilted>0</tilted></feature>
            <threshold>2.0441500237211585e-004</threshold>
            <left_val>-1.</left_val>
            <right_val>1.</right_val></_></_>
        <_>
          <_>
            <feature>
              <rects>
                <_>
                  0 0 2 1 -1.</_>
                <_>
                  1 0 1 1 2.</_></rects>
              <tilted>0</tilted></feature>
            <threshold>-1.1065490252804011e-004</threshold>
            <left_val>-1.</left_val>
            <right_node>1</right_node></_>
          <_>
            <feature>
              <rects>
                <_>
                  0 0 2 1 -1.</_>
                <_>
                  1 0 1 1 2.</_></rects>
              <tilted>0</tilted></feature>
            <threshold>0.</threshold>
            <left_val>0.</left_val>
            <right_val>-1.</right_val></_></_>
        <_>
          <_>
            <feature>
              <rects>
                <_>
                  10 7 10 8 -1.</_>
                <_>
                  15 7 5 8 2.</_></rects>
              <tilted>0</tilted></feature>
            <threshold>1.9553469028323889e-003</threshold>
            <left_val>-1.</left_val>
            <right_val>1.</right_val></_></_>
        <_>
          <_>
            <feature>
              <rects>
                <_>
                  0 0 20 5 -1.</_>
                <_>
                  5 0 10 5 2.</_></rects>
              <tilted>0</tilted></feature>
            <threshold>0.0151623496785760</threshold>
            <left_val>-1.</left_val>
            <right_node>1</right_node></_>
          <_>
            <feature>
              <rects>
                <_>
                  0 0 2 12 -1.</_>
                <_>
                  0 0 1 6 2.</_>
                <_>
                  1 6 1 6 2.</_></rects>
              <tilted>0</tilted></feature>
            <threshold>-2.0848230924457312e-003</threshold>
            <left_val>1.</left_val>
            <right_val>-1.</right_val></_></_>
        <_>
          <_>
            <feature>
              <rects>
                <_>
                  1 0 18 18 -1.</_>
                <_>
                  7 6 6 6 9.</_></rects>
              <tilted>0</tilted></feature>
            <threshold>-0.0300692692399025</threshold>
            <left_val>1.</left_val>
            <right_node>1</right_node></_>
          <_>
            <feature>
              <rects>
                <_>
                  0 0 2 1 -1.</_>
                <_>
                  1 0 1 1 2.</_></rects>
              <tilted>0</tilted></feature>
            <threshold>0.</threshold>
            <left_val>0.</left_val>
            <right_val>-1.</right_val></_></_>
        <_>
          <_>
            <feature>
              <rects>
                <_>
                  1 0 12 4 -1.</_>
                <_>
                  7 0 6 4 2.</_></rects>
              <tilted>0</tilted></feature>
            <threshold>-5.6539320212323219e-005</threshold>
            <left_val>1.</left_val>
            <right_node>1</right_node></_>
          <_>
            <feature>
              <rects>
                <_>
                  0 0 6 16 -1.</_>
                <_>
                  0 0 3 8 2.</_>
                <_>
                  3 8 3 8 2.</_></rects>
              <tilted>0</tilted></feature>
            <threshold>0.0155023597180843</threshold>
            <left_val>-1.</left_val>
            <right_val>1.0006150007247925</right_val></_></_>
        <_>
          <_>
            <feature>
              <rects>
                <_>
                  0 1 8 6 -1.</_>
                <_>
                  0 1 4 3 2.</_>
                <_>
                  4 4 4 3 2.</_></rects>
              <tilted>0</tilted></feature>
            <threshold>1.6813090041978285e-005</threshold>
            <left_val>-1.</left_val>
            <right_node>1</right_node></_>
          <_>
            <feature>
              <rects>
                <_>
                  0 1 8 6 -1.</_>
                <_>
                  0 1 4 3 2.</_>
                <_>
                  4 4 4 3 2.</_></rects>
              <tilted>0</tilted></feature>
            <threshold>1.6813090041978285e-005</threshold>
            <left_val>-1.</left_val>
            <right_val>1.0002249479293823</right_val></_></_>
        <_>
          <_>
            <feature>
              <rects>
                <_>
                  0 0 2 1 -1.</_>
                <_>
                  1 0 1 1 2.</_></rects>
              <tilted>0</tilted></feature>
            <threshold>0.</threshold>
            <left_val>0.</left_val>
            <right_val>-1.</right_val></_></_>
        <_>
          <_>
            <feature>
              <rects>
                <_>
                  1 8 8 6 -1.</_>
                <_>
                  1 10 8 2 3.</_></rects>
              <tilted>0</tilted></feature>
            <threshold>1.3951909495517612e-003</threshold>
            <left_val>-1.</left_val>
            <right_node>1</right_node></_>
          <_>
            <feature>
              <rects>
                <_>
                  0 0 18 15 -1.</_>
                <_>
                  6 5 6 5 9.</_></rects>
              <tilted>0</tilted></feature>
            <threshold>-9.4546852633357048e-003</threshold>
            <left_val>1.</left_val>
            <right_val>-1.</right_val></_></_>
        <_>
          <_>
            <feature>
              <rects>
                <_>
                  9 7 5 3 -1.</_>
                <_>
                  9 8 5 1 3.</_></rects>
              <tilted>0</tilted></feature>
            <threshold>6.4667302649468184e-004</threshold>
            <left_node>1</left_node>
            <right_val>1.0000699758529663</right_val></_>
          <_>
            <feature>
              <rects>
                <_>
                  0 0 2 1 -1.</_>
                <_>
                  1 0 1 1 2.</_></rects>
              <tilted>0</tilted></feature>
            <threshold>-1.1065490252804011e-004</threshold>
            <left_val>-1.</left_val>
            <right_val>1.</right_val></_></_>
        <_>
          <_>
            <feature>
              <rects>
                <_>
                  0 0 2 1 -1.</_>
                <_>
                  1 0 1 1 2.</_></rects>
              <tilted>0</tilted></feature>
            <threshold>0.</threshold>
            <left_val>0.</left_val>
            <right_val>-1.</right_val></_></_>
        <_>
          <_>
            <feature>
              <rects>
                <_>
                  1 4 13 3 -1.</_>
                <_>
                  1 5 13 1 3.</_></rects>
              <tilted>0</tilted></feature>
            <threshold>3.4132441214751452e-005</threshold>
            <left_val>-1.</left_val>
            <right_node>1</right_node></_>
          <_>
            <feature>
              <rects>
                <_>
                  13 1 6 14 -1.</_>
                <_>
                  16 1 3 14 2.</_></rects>
              <tilted>0</tilted></feature>
            <threshold>3.8228330668061972e-003</threshold>
            <left_val>-1.</left_val>
            <right_val>1.0001289844512939</right_val></_></_>
        <_>
          <_>
            <feature>
              <rects>
                <_>
                  0 0 2 1 -1.</_>
                <_>
                  1 0 1 1 2.</_></rects>
              <tilted>0</tilted></feature>
            <threshold>0.</threshold>
            <left_val>0.</left_val>
            <right_val>-1.</right_val></_></_>
        <_>
          <_>
            <feature>
              <rects>
                <_>
                  0 0 2 1 -1.</_>
                <_>
                  1 0 1 1 2.</_></rects>
              <tilted>0</tilted></feature>
            <threshold>0.</threshold>
            <left_val>0.</left_val>
            <right_val>-1.</right_val></_></_>
        <_>
          <_>
            <feature>
              <rects>
                <_>
                  0 0 4 3 -1.</_>
                <_>
                  1 0 2 3 2.</_></rects>
              <tilted>0</tilted></feature>
            <threshold>3.2712789834477007e-004</threshold>
            <left_val>-1.</left_val>
            <right_val>1.</right_val></_></_>
        <_>
          <_>
            <feature>
              <rects>
                <_>
                  3 0 12 20 -1.</_>
                <_>
                  3 5 12 10 2.</_></rects>
              <tilted>0</tilted></feature>
            <threshold>-0.0157950501888990</threshold>
            <left_val>1.</left_val>
            <right_node>1</right_node></_>
          <_>
            <feature>
              <rects>
                <_>
                  0 0 2 1 -1.</_>
                <_>
                  1 0 1 1 2.</_></rects>
              <tilted>0</tilted></feature>
            <threshold>0.</threshold>
            <left_val>0.</left_val>
            <right_val>-1.</right_val></_></_>
        <_>
          <_>
            <feature>
              <rects>
                <_>
                  8 4 5 16 -1.</_>
                <_>
                  8 12 5 8 2.</_></rects>
              <tilted>0</tilted></feature>
            <threshold>1.7834620084613562e-003</threshold>
            <left_val>-1.</left_val>
            <right_node>1</right_node></_>
          <_>
            <feature>
              <rects>
                <_>
                  8 4 5 16 -1.</_>
                <_>
                  8 12 5 8 2.</_></rects>
              <tilted>0</tilted></feature>
            <threshold>1.7834620084613562e-003</threshold>
            <left_val>-1.</left_val>
            <right_val>1.0000020265579224</right_val></_></_>
        <_>
          <_>
            <feature>
              <rects>
                <_>
                  0 0 2 1 -1.</_>
                <_>
                  1 0 1 1 2.</_></rects>
              <tilted>0</tilted></feature>
            <threshold>0.</threshold>
            <left_val>0.</left_val>
            <right_val>-1.</right_val></_></_>
        <_>
          <_>
            <feature>
              <rects>
                <_>
                  0 0 2 8 -1.</_>
                <_>
                  0 0 1 4 2.</_>
                <_>
                  1 4 1 4 2.</_></rects>
              <tilted>0</tilted></feature>
            <threshold>-5.3846761147724465e-005</threshold>
            <left_val>1.</left_val>
            <right_node>1</right_node></_>
          <_>
            <feature>
              <rects>
                <_>
                  0 0 2 1 -1.</_>
                <_>
                  1 0 1 1 2.</_></rects>
              <tilted>0</tilted></feature>
            <threshold>0.</threshold>
            <left_val>0.</left_val>
            <right_val>-1.</right_val></_></_>
        <_>
          <_>
            <feature>
              <rects>
                <_>
                  0 0 12 8 -1.</_>
                <_>
                  0 2 12 4 2.</_></rects>
              <tilted>0</tilted></feature>
            <threshold>2.5629109586589038e-004</threshold>
            <left_val>-1.</left_val>
            <right_val>1.</right_val></_></_>
        <_>
          <_>
            <feature>
              <rects>
                <_>
                  9 0 4 9 -1.</_>
                <_>
                  9 0 2 9 2.</_></rects>
              <tilted>1</tilted></feature>
            <threshold>5.0172291230410337e-004</threshold>
            <left_val>-1.</left_val>
            <right_val>1.</right_val></_></_>
        <_>
          <_>
            <feature>
              <rects>
                <_>
                  0 0 10 3 -1.</_>
                <_>
                  0 1 10 1 3.</_></rects>
              <tilted>0</tilted></feature>
            <threshold>1.6399539163103327e-005</threshold>
            <left_val>-1.</left_val>
            <right_val>1.</right_val></_></_>
        <_>
          <_>
            <feature>
              <rects>
                <_>
                  9 5 10 9 -1.</_>
                <_>
                  9 8 10 3 3.</_></rects>
              <tilted>0</tilted></feature>
            <threshold>8.0405157059431076e-003</threshold>
            <left_val>-1.</left_val>
            <right_val>1.</right_val></_></_>
        <_>
          <_>
            <feature>
              <rects>
                <_>
                  0 0 4 5 -1.</_>
                <_>
                  1 0 2 5 2.</_></rects>
              <tilted>0</tilted></feature>
            <threshold>7.5385767559055239e-005</threshold>
            <left_val>-1.</left_val>
            <right_node>1</right_node></_>
          <_>
            <feature>
              <rects>
                <_>
                  0 0 2 6 -1.</_>
                <_>
                  1 0 1 6 2.</_></rects>
              <tilted>0</tilted></feature>
            <threshold>2.4500369909219444e-004</threshold>
            <left_val>-1.</left_val>
            <right_val>1.0002640485763550</right_val></_></_>
        <_>
          <_>
            <feature>
              <rects>
                <_>
                  0 0 2 1 -1.</_>
                <_>
                  1 0 1 1 2.</_></rects>
              <tilted>0</tilted></feature>
            <threshold>0.</threshold>
            <left_val>0.</left_val>
            <right_val>-1.</right_val></_></_>
        <_>
          <_>
            <feature>
              <rects>
                <_>
                  0 13 13 4 -1.</_>
                <_>
                  0 15 13 2 2.</_></rects>
              <tilted>0</tilted></feature>
            <threshold>6.6998088732361794e-004</threshold>
            <left_val>-1.</left_val>
            <right_node>1</right_node></_>
          <_>
            <feature>
              <rects>
                <_>
                  8 2 5 3 -1.</_>
                <_>
                  7 3 5 1 3.</_></rects>
              <tilted>1</tilted></feature>
            <threshold>3.4132441214751452e-005</threshold>
            <left_val>-1.</left_val>
            <right_val>1.0000669956207275</right_val></_></_>
        <_>
          <_>
            <feature>
              <rects>
                <_>
                  0 0 2 1 -1.</_>
                <_>
                  1 0 1 1 2.</_></rects>
              <tilted>0</tilted></feature>
            <threshold>0.</threshold>
            <left_val>0.</left_val>
            <right_val>-1.</right_val></_></_>
        <_>
          <_>
            <feature>
              <rects>
                <_>
                  12 6 8 9 -1.</_>
                <_>
                  16 6 4 9 2.</_></rects>
              <tilted>0</tilted></feature>
            <threshold>4.5150751248002052e-003</threshold>
            <left_val>-1.</left_val>
            <right_node>1</right_node></_>
          <_>
            <feature>
              <rects>
                <_>
                  12 8 8 7 -1.</_>
                <_>
                  16 8 4 7 2.</_></rects>
              <tilted>0</tilted></feature>
            <threshold>3.7268959567882121e-004</threshold>
            <left_val>-1.</left_val>
            <right_val>1.0000070333480835</right_val></_></_>
        <_>
          <_>
            <feature>
              <rects>
                <_>
                  0 0 2 1 -1.</_>
                <_>
                  1 0 1 1 2.</_></rects>
              <tilted>0</tilted></feature>
            <threshold>0.</threshold>
            <left_val>0.</left_val>
            <right_val>-1.</right_val></_></_>
        <_>
          <_>
            <feature>
              <rects>
                <_>
                  4 8 10 12 -1.</_>
                <_>
                  4 14 10 6 2.</_></rects>
              <tilted>0</tilted></feature>
            <threshold>3.1167300767265260e-004</threshold>
            <left_val>-1.</left_val>
            <right_val>1.</right_val></_></_>
        <_>
          <_>
            <feature>
              <rects>
                <_>
                  0 0 2 1 -1.</_>
                <_>
                  1 0 1 1 2.</_></rects>
              <tilted>0</tilted></feature>
            <threshold>1.3951909495517612e-003</threshold>
            <left_val>-1.</left_val>
            <right_val>1.</right_val></_></_>
        <_>
          <_>
            <feature>
              <rects>
                <_>
                  0 0 15 10 -1.</_>
                <_>
                  5 0 5 10 3.</_></rects>
              <tilted>0</tilted></feature>
            <threshold>0.0214310102164745</threshold>
            <left_val>-1.</left_val>
            <right_node>1</right_node></_>
          <_>
            <feature>
              <rects>
                <_>
                  0 0 2 8 -1.</_>
                <_>
                  0 0 1 4 2.</_>
                <_>
                  1 4 1 4 2.</_></rects>
              <tilted>0</tilted></feature>
            <threshold>-5.3846761147724465e-005</threshold>
            <left_val>1.</left_val>
            <right_val>-1.</right_val></_></_>
        <_>
          <_>
            <feature>
              <rects>
                <_>
                  17 0 3 6 -1.</_>
                <_>
                  17 0 3 3 2.</_></rects>
              <tilted>1</tilted></feature>
            <threshold>8.0577679909765720e-005</threshold>
            <left_node>1</left_node>
            <right_val>1.0000139474868774</right_val></_>
          <_>
            <feature>
              <rects>
                <_>
                  0 0 2 1 -1.</_>
                <_>
                  1 0 1 1 2.</_></rects>
              <tilted>0</tilted></feature>
            <threshold>0.</threshold>
            <left_val>0.</left_val>
            <right_val>1.</right_val></_></_>
        <_>
          <_>
            <feature>
              <rects>
                <_>
                  0 0 2 1 -1.</_>
                <_>
                  1 0 1 1 2.</_></rects>
              <tilted>0</tilted></feature>
            <threshold>0.</threshold>
            <left_val>0.</left_val>
            <right_val>-1.</right_val></_></_>
        <_>
          <_>
            <feature>
              <rects>
                <_>
                  17 0 3 6 -1.</_>
                <_>
                  17 0 3 3 2.</_></rects>
              <tilted>1</tilted></feature>
            <threshold>8.0577679909765720e-005</threshold>
            <left_node>1</left_node>
            <right_val>0.9999939203262329</right_val></_>
          <_>
            <feature>
              <rects>
                <_>
                  0 0 2 1 -1.</_>
                <_>
                  1 0 1 1 2.</_></rects>
              <tilted>0</tilted></feature>
            <threshold>0.</threshold>
            <left_val>0.</left_val>
            <right_val>1.</right_val></_></_>
        <_>
          <_>
            <feature>
              <rects>
                <_>
                  0 0 2 1 -1.</_>
                <_>
                  1 0 1 1 2.</_></rects>
              <tilted>0</tilted></feature>
            <threshold>0.</threshold>
            <left_val>0.</left_val>
            <right_val>-1.</right_val></_></_>
        <_>
          <_>
            <feature>
              <rects>
                <_>
                  6 7 7 6 -1.</_>
                <_>
                  6 7 7 3 2.</_></rects>
              <tilted>1</tilted></feature>
            <threshold>-7.9208618262782693e-004</threshold>
            <left_val>1.</left_val>
            <right_node>1</right_node></_>
          <_>
            <feature>
              <rects>
                <_>
                  0 0 2 1 -1.</_>
                <_>
                  1 0 1 1 2.</_></rects>
              <tilted>0</tilted></feature>
            <threshold>0.</threshold>
            <left_val>0.</left_val>
            <right_val>-1.</right_val></_></_>
        <_>
          <_>
            <feature>
              <rects>
                <_>
                  0 0 2 1 -1.</_>
                <_>
                  1 0 1 1 2.</_></rects>
              <tilted>0</tilted></feature>
            <threshold>0.</threshold>
            <left_val>0.</left_val>
            <right_val>-1.</right_val></_></_>
        <_>
          <_>
            <feature>
              <rects>
                <_>
                  0 0 4 20 -1.</_>
                <_>
                  0 0 2 10 2.</_>
                <_>
                  2 10 2 10 2.</_></rects>
              <tilted>0</tilted></feature>
            <threshold>2.3369588889181614e-003</threshold>
            <left_val>-1.</left_val>
            <right_val>1.</right_val></_></_>
        <_>
          <_>
            <feature>
              <rects>
                <_>
                  0 0 2 1 -1.</_>
                <_>
                  1 0 1 1 2.</_></rects>
              <tilted>0</tilted></feature>
            <threshold>0.</threshold>
            <left_val>0.</left_val>
            <right_val>-1.</right_val></_></_>
        <_>
          <_>
            <feature>
              <rects>
                <_>
                  0 0 16 1 -1.</_>
                <_>
                  4 0 8 1 2.</_></rects>
              <tilted>0</tilted></feature>
            <threshold>7.6875061495229602e-004</threshold>
            <left_val>-1.</left_val>
            <right_val>1.</right_val></_></_>
        <_>
          <_>
            <feature>
              <rects>
                <_>
                  3 0 8 1 -1.</_>
                <_>
                  3 0 4 1 2.</_></rects>
              <tilted>1</tilted></feature>
            <threshold>5.9967098059132695e-004</threshold>
            <left_val>-1.</left_val>
            <right_val>1.</right_val></_></_>
        <_>
          <_>
            <feature>
              <rects>
                <_>
                  0 0 7 4 -1.</_>
                <_>
                  0 1 7 2 2.</_></rects>
              <tilted>0</tilted></feature>
            <threshold>8.9744600700214505e-005</threshold>
            <left_val>-1.</left_val>
            <right_val>1.</right_val></_></_>
        <_>
          <_>
            <feature>
              <rects>
                <_>
                  11 7 9 6 -1.</_>
                <_>
                  11 9 9 2 3.</_></rects>
              <tilted>0</tilted></feature>
            <threshold>4.7784971684450284e-005</threshold>
            <left_node>1</left_node>
            <right_val>0.9547811746597290</right_val></_>
          <_>
            <feature>
              <rects>
                <_>
                  0 0 3 1 -1.</_>
                <_>
                  1 0 1 1 3.</_></rects>
              <tilted>0</tilted></feature>
            <threshold>-8.7866681860759854e-004</threshold>
            <left_val>-1.</left_val>
            <right_val>1.0000139474868774</right_val></_></_>
        <_>
          <_>
            <feature>
              <rects>
                <_>
                  6 3 14 2 -1.</_>
                <_>
                  6 3 7 2 2.</_></rects>
              <tilted>1</tilted></feature>
            <threshold>0.0268453191965818</threshold>
            <left_val>-1.</left_val>
            <right_node>1</right_node></_>
          <_>
            <feature>
              <rects>
                <_>
                  7 4 5 16 -1.</_>
                <_>
                  7 12 5 8 2.</_></rects>
              <tilted>0</tilted></feature>
            <threshold>8.7379040196537971e-003</threshold>
            <left_val>-1.</left_val>
            <right_val>1.0003939867019653</right_val></_></_>
        <_>
          <_>
            <feature>
              <rects>
                <_>
                  0 0 2 1 -1.</_>
                <_>
                  1 0 1 1 2.</_></rects>
              <tilted>0</tilted></feature>
            <threshold>0.</threshold>
            <left_val>0.</left_val>
            <right_val>-1.</right_val></_></_>
        <_>
          <_>
            <feature>
              <rects>
                <_>
                  2 1 18 18 -1.</_>
                <_>
                  8 7 6 6 9.</_></rects>
              <tilted>0</tilted></feature>
            <threshold>-0.0236122906208038</threshold>
            <left_val>1.</left_val>
            <right_node>1</right_node></_>
          <_>
            <feature>
              <rects>
                <_>
                  0 0 2 1 -1.</_>
                <_>
                  1 0 1 1 2.</_></rects>
              <tilted>0</tilted></feature>
            <threshold>0.</threshold>
            <left_val>0.</left_val>
            <right_val>-1.</right_val></_></_>
        <_>
          <_>
            <feature>
              <rects>
                <_>
                  0 0 2 1 -1.</_>
                <_>
                  1 0 1 1 2.</_></rects>
              <tilted>0</tilted></feature>
            <threshold>0.</threshold>
            <left_val>0.</left_val>
            <right_val>-1.</right_val></_></_>
        <_>
          <_>
            <feature>
              <rects>
                <_>
                  0 0 2 14 -1.</_>
                <_>
                  0 0 1 7 2.</_>
                <_>
                  1 7 1 7 2.</_></rects>
              <tilted>0</tilted></feature>
            <threshold>-3.2018260098993778e-003</threshold>
            <left_val>1.</left_val>
            <right_node>1</right_node></_>
          <_>
            <feature>
              <rects>
                <_>
                  0 0 2 1 -1.</_>
                <_>
                  1 0 1 1 2.</_></rects>
              <tilted>0</tilted></feature>
            <threshold>0.</threshold>
            <left_val>0.</left_val>
            <right_val>-1.</right_val></_></_>
        <_>
          <_>
            <feature>
              <rects>
                <_>
                  0 0 3 18 -1.</_>
                <_>
                  1 6 1 6 9.</_></rects>
              <tilted>0</tilted></feature>
            <threshold>3.0492790974676609e-003</threshold>
            <left_val>-1.</left_val>
            <right_val>1.</right_val></_></_>
        <_>
          <_>
            <feature>
              <rects>
                <_>
                  9 1 4 4 -1.</_>
                <_>
                  9 1 2 4 2.</_></rects>
              <tilted>1</tilted></feature>
            <threshold>8.7241828441619873e-004</threshold>
            <left_val>-1.</left_val>
            <right_node>1</right_node></_>
          <_>
            <feature>
              <rects>
                <_>
                  0 5 12 1 -1.</_>
                <_>
                  3 5 6 1 2.</_></rects>
              <tilted>0</tilted></feature>
            <threshold>3.4741860872600228e-005</threshold>
            <left_val>-1.</left_val>
            <right_val>1.</right_val></_></_>
        <_>
          <_>
            <feature>
              <rects>
                <_>
                  0 0 11 8 -1.</_>
                <_>
                  0 2 11 4 2.</_></rects>
              <tilted>0</tilted></feature>
            <threshold>-2.7733080787584186e-004</threshold>
            <left_val>1.</left_val>
            <right_node>1</right_node></_>
          <_>
            <feature>
              <rects>
                <_>
                  0 0 2 1 -1.</_>
                <_>
                  1 0 1 1 2.</_></rects>
              <tilted>0</tilted></feature>
            <threshold>0.</threshold>
            <left_val>0.</left_val>
            <right_val>-1.</right_val></_></_>
        <_>
          <_>
            <feature>
              <rects>
                <_>
                  0 0 2 1 -1.</_>
                <_>
                  1 0 1 1 2.</_></rects>
              <tilted>0</tilted></feature>
            <threshold>0.</threshold>
            <left_val>0.</left_val>
            <right_val>-1.</right_val></_></_>
        <_>
          <_>
            <feature>
              <rects>
                <_>
                  0 0 4 3 -1.</_>
                <_>
                  1 0 2 3 2.</_></rects>
              <tilted>0</tilted></feature>
            <threshold>8.1463571405038238e-004</threshold>
            <left_val>-1.</left_val>
            <right_val>1.</right_val></_></_>
        <_>
          <_>
            <feature>
              <rects>
                <_>
                  4 1 6 8 -1.</_>
                <_>
                  4 5 6 4 2.</_></rects>
              <tilted>0</tilted></feature>
            <threshold>-2.0499420352280140e-003</threshold>
            <left_val>1.</left_val>
            <right_node>1</right_node></_>
          <_>
            <feature>
              <rects>
                <_>
                  0 0 2 1 -1.</_>
                <_>
                  1 0 1 1 2.</_></rects>
              <tilted>0</tilted></feature>
            <threshold>-4.7652720240876079e-004</threshold>
            <left_val>-1.</left_val>
            <right_val>-1.</right_val></_></_>
        <_>
          <_>
            <feature>
              <rects>
                <_>
                  14 0 6 14 -1.</_>
                <_>
                  17 0 3 14 2.</_></rects>
              <tilted>0</tilted></feature>
            <threshold>3.4132439759559929e-004</threshold>
            <left_node>1</left_node>
            <right_val>1.</right_val></_>
          <_>
            <feature>
              <rects>
                <_>
                  0 0 2 2 -1.</_>
                <_>
                  0 0 1 1 2.</_>
                <_>
                  1 1 1 1 2.</_></rects>
              <tilted>0</tilted></feature>
            <threshold>-7.6930841896682978e-004</threshold>
            <left_val>1.</left_val>
            <right_val>-1.</right_val></_></_>
        <_>
          <_>
            <feature>
              <rects>
                <_>
                  0 0 2 1 -1.</_>
                <_>
                  1 0 1 1 2.</_></rects>
              <tilted>0</tilted></feature>
            <threshold>-2.0434010366443545e-004</threshold>
            <left_val>-1.</left_val>
            <right_node>1</right_node></_>
          <_>
            <feature>
              <rects>
                <_>
                  0 0 2 1 -1.</_>
                <_>
                  1 0 1 1 2.</_></rects>
              <tilted>0</tilted></feature>
            <threshold>-1.8737040227279067e-004</threshold>
            <left_val>0.</left_val>
            <right_val>-1.</right_val></_></_>
        <_>
          <_>
            <feature>
              <rects>
                <_>
                  1 0 10 1 -1.</_>
                <_>
                  1 0 5 1 2.</_></rects>
              <tilted>1</tilted></feature>
            <threshold>3.4732660278677940e-003</threshold>
            <left_val>-1.</left_val>
            <right_val>1.</right_val></_></_>
        <_>
          <_>
            <feature>
              <rects>
                <_>
                  0 0 3 15 -1.</_>
                <_>
                  1 5 1 5 9.</_></rects>
              <tilted>0</tilted></feature>
            <threshold>0.0178418904542923</threshold>
            <left_val>-1.</left_val>
            <right_val>1.</right_val></_></_>
        <_>
          <_>
            <feature>
              <rects>
                <_>
                  5 4 15 5 -1.</_>
                <_>
                  10 4 5 5 3.</_></rects>
              <tilted>0</tilted></feature>
            <threshold>-3.0092159286141396e-003</threshold>
            <left_val>1.</left_val>
            <right_node>1</right_node></_>
          <_>
            <feature>
              <rects>
                <_>
                  0 0 4 8 -1.</_>
                <_>
                  0 0 2 4 2.</_>
                <_>
                  2 4 2 4 2.</_></rects>
              <tilted>0</tilted></feature>
            <threshold>-1.1263709748163819e-003</threshold>
            <left_val>1.</left_val>
            <right_val>-1.</right_val></_></_>
        <_>
          <_>
            <feature>
              <rects>
                <_>
                  11 1 8 8 -1.</_>
                <_>
                  15 1 4 8 2.</_></rects>
              <tilted>0</tilted></feature>
            <threshold>1.4929700409993529e-004</threshold>
            <left_node>1</left_node>
            <right_val>0.9808351993560791</right_val></_>
          <_>
            <feature>
              <rects>
                <_>
                  0 0 2 1 -1.</_>
                <_>
                  1 0 1 1 2.</_></rects>
              <tilted>0</tilted></feature>
            <threshold>-9.3685222964268178e-005</threshold>
            <left_val>-1.</left_val>
            <right_val>1.</right_val></_></_>
        <_>
          <_>
            <feature>
              <rects>
                <_>
                  0 13 12 4 -1.</_>
                <_>
                  0 15 12 2 2.</_></rects>
              <tilted>0</tilted></feature>
            <threshold>7.8138522803783417e-004</threshold>
            <left_node>1</left_node>
            <right_val>0.9128025174140930</right_val></_>
          <_>
            <feature>
              <rects>
                <_>
                  0 0 2 11 -1.</_>
                <_>
                  1 0 1 11 2.</_></rects>
              <tilted>0</tilted></feature>
            <threshold>8.1318784505128860e-003</threshold>
            <left_val>-1.</left_val>
            <right_val>1.0000009536743164</right_val></_></_>
        <_>
          <_>
            <feature>
              <rects>
                <_>
                  0 0 14 16 -1.</_>
                <_>
                  0 0 7 8 2.</_>
                <_>
                  7 8 7 8 2.</_></rects>
              <tilted>0</tilted></feature>
            <threshold>8.0471513792872429e-003</threshold>
            <left_val>-1.</left_val>
            <right_val>1.</right_val></_></_>
        <_>
          <_>
            <feature>
              <rects>
                <_>
                  0 0 2 1 -1.</_>
                <_>
                  1 0 1 1 2.</_></rects>
              <tilted>0</tilted></feature>
            <threshold>0.</threshold>
            <left_val>0.</left_val>
            <right_val>-1.</right_val></_></_>
        <_>
          <_>
            <feature>
              <rects>
                <_>
                  0 0 2 1 -1.</_>
                <_>
                  1 0 1 1 2.</_></rects>
              <tilted>0</tilted></feature>
            <threshold>0.</threshold>
            <left_val>0.</left_val>
            <right_val>-1.</right_val></_></_>
        <_>
          <_>
            <feature>
              <rects>
                <_>
                  0 0 2 1 -1.</_>
                <_>
                  1 0 1 1 2.</_></rects>
              <tilted>0</tilted></feature>
            <threshold>0.</threshold>
            <left_val>0.</left_val>
            <right_val>-1.</right_val></_></_>
        <_>
          <_>
            <feature>
              <rects>
                <_>
                  0 0 4 14 -1.</_>
                <_>
                  1 0 2 14 2.</_></rects>
              <tilted>0</tilted></feature>
            <threshold>1.1479669774416834e-004</threshold>
            <left_val>-1.</left_val>
            <right_val>1.</right_val></_></_>
        <_>
          <_>
            <feature>
              <rects>
                <_>
                  8 10 5 2 -1.</_>
                <_>
                  8 10 5 1 2.</_></rects>
              <tilted>1</tilted></feature>
            <threshold>-1.9976568873971701e-003</threshold>
            <left_val>1.</left_val>
            <right_node>1</right_node></_>
          <_>
            <feature>
              <rects>
                <_>
                  0 0 2 1 -1.</_>
                <_>
                  1 0 1 1 2.</_></rects>
              <tilted>0</tilted></feature>
            <threshold>0.</threshold>
            <left_val>0.</left_val>
            <right_val>-1.</right_val></_></_>
        <_>
          <_>
            <feature>
              <rects>
                <_>
                  4 0 8 12 -1.</_>
                <_>
                  4 3 8 6 2.</_></rects>
              <tilted>0</tilted></feature>
            <threshold>-6.4071128144860268e-003</threshold>
            <left_val>1.</left_val>
            <right_node>1</right_node></_>
          <_>
            <feature>
              <rects>
                <_>
                  0 0 2 1 -1.</_>
                <_>
                  1 0 1 1 2.</_></rects>
              <tilted>0</tilted></feature>
            <threshold>0.</threshold>
            <left_val>0.</left_val>
            <right_val>-1.</right_val></_></_>
        <_>
          <_>
            <feature>
              <rects>
                <_>
                  1 0 13 3 -1.</_>
                <_>
                  1 1 13 1 3.</_></rects>
              <tilted>0</tilted></feature>
            <threshold>3.6478950642049313e-004</threshold>
            <left_val>-1.</left_val>
            <right_val>1.</right_val></_></_>
        <_>
          <_>
            <feature>
              <rects>
                <_>
                  0 0 2 1 -1.</_>
                <_>
                  1 0 1 1 2.</_></rects>
              <tilted>0</tilted></feature>
            <threshold>0.</threshold>
            <left_val>0.</left_val>
            <right_val>-1.</right_val></_></_>
        <_>
          <_>
            <feature>
              <rects>
                <_>
                  2 0 13 8 -1.</_>
                <_>
                  2 2 13 4 2.</_></rects>
              <tilted>0</tilted></feature>
            <threshold>2.0635901018977165e-003</threshold>
            <left_val>-1.</left_val>
            <right_val>1.</right_val></_></_>
        <_>
          <_>
            <feature>
              <rects>
                <_>
                  0 0 2 1 -1.</_>
                <_>
                  1 0 1 1 2.</_></rects>
              <tilted>0</tilted></feature>
            <threshold>0.</threshold>
            <left_val>0.</left_val>
            <right_val>-1.</right_val></_></_>
        <_>
          <_>
            <feature>
              <rects>
                <_>
                  0 0 14 8 -1.</_>
                <_>
                  0 0 7 4 2.</_>
                <_>
                  7 4 7 4 2.</_></rects>
              <tilted>0</tilted></feature>
            <threshold>-6.2318230047821999e-003</threshold>
            <left_val>1.</left_val>
            <right_node>1</right_node></_>
          <_>
            <feature>
              <rects>
                <_>
                  0 0 2 1 -1.</_>
                <_>
                  1 0 1 1 2.</_></rects>
              <tilted>0</tilted></feature>
            <threshold>0.</threshold>
            <left_val>0.</left_val>
            <right_val>-1.</right_val></_></_>
        <_>
          <_>
            <feature>
              <rects>
                <_>
                  0 0 4 8 -1.</_>
                <_>
                  0 0 2 4 2.</_>
                <_>
                  2 4 2 4 2.</_></rects>
              <tilted>0</tilted></feature>
            <threshold>4.8834360204637051e-003</threshold>
            <left_val>-1.</left_val>
            <right_val>1.</right_val></_></_>
        <_>
          <_>
            <feature>
              <rects>
                <_>
                  0 0 2 1 -1.</_>
                <_>
                  1 0 1 1 2.</_></rects>
              <tilted>0</tilted></feature>
            <threshold>0.</threshold>
            <left_val>0.</left_val>
            <right_val>-1.</right_val></_></_>
        <_>
          <_>
            <feature>
              <rects>
                <_>
                  0 0 12 6 -1.</_>
                <_>
                  3 0 6 6 2.</_></rects>
              <tilted>0</tilted></feature>
            <threshold>3.0793910846114159e-003</threshold>
            <left_val>-1.</left_val>
            <right_val>1.</right_val></_></_>
        <_>
          <_>
            <feature>
              <rects>
                <_>
                  8 8 1 12 -1.</_>
                <_>
                  8 14 1 6 2.</_></rects>
              <tilted>0</tilted></feature>
            <threshold>2.8704600408673286e-003</threshold>
            <left_val>-1.</left_val>
            <right_val>1.</right_val></_></_>
        <_>
          <_>
            <feature>
              <rects>
                <_>
                  0 0 2 1 -1.</_>
                <_>
                  1 0 1 1 2.</_></rects>
              <tilted>0</tilted></feature>
            <threshold>1.7370930436300114e-005</threshold>
            <left_val>-1.</left_val>
            <right_val>1.</right_val></_></_>
        <_>
          <_>
            <feature>
              <rects>
                <_>
                  4 0 15 18 -1.</_>
                <_>
                  9 6 5 6 9.</_></rects>
              <tilted>0</tilted></feature>
            <threshold>-0.0536903291940689</threshold>
            <left_val>1.</left_val>
            <right_node>1</right_node></_>
          <_>
            <feature>
              <rects>
                <_>
                  0 0 2 1 -1.</_>
                <_>
                  1 0 1 1 2.</_></rects>
              <tilted>0</tilted></feature>
            <threshold>0.</threshold>
            <left_val>0.</left_val>
            <right_val>-1.</right_val></_></_>
        <_>
          <_>
            <feature>
              <rects>
                <_>
                  0 6 3 9 -1.</_>
                <_>
                  1 9 1 3 9.</_></rects>
              <tilted>0</tilted></feature>
            <threshold>3.2898818608373404e-004</threshold>
            <left_val>-1.</left_val>
            <right_val>1.</right_val></_></_>
        <_>
          <_>
            <feature>
              <rects>
                <_>
                  0 0 2 1 -1.</_>
                <_>
                  1 0 1 1 2.</_></rects>
              <tilted>0</tilted></feature>
            <threshold>0.</threshold>
            <left_val>0.</left_val>
            <right_val>-1.</right_val></_></_>
        <_>
          <_>
            <feature>
              <rects>
                <_>
                  0 0 10 3 -1.</_>
                <_>
                  0 1 10 1 3.</_></rects>
              <tilted>0</tilted></feature>
            <threshold>1.6399539163103327e-005</threshold>
            <left_val>-1.</left_val>
            <right_val>1.</right_val></_></_>
        <_>
          <_>
            <feature>
              <rects>
                <_>
                  9 1 2 18 -1.</_>
                <_>
                  9 7 2 6 3.</_></rects>
              <tilted>0</tilted></feature>
            <threshold>-6.4861602149903774e-003</threshold>
            <left_val>1.</left_val>
            <right_node>1</right_node></_>
          <_>
            <feature>
              <rects>
                <_>
                  0 0 2 1 -1.</_>
                <_>
                  1 0 1 1 2.</_></rects>
              <tilted>0</tilted></feature>
            <threshold>-9.3685222964268178e-005</threshold>
            <left_val>-1.</left_val>
            <right_val>-1.</right_val></_></_>
        <_>
          <_>
            <feature>
              <rects>
                <_>
                  12 5 1 9 -1.</_>
                <_>
                  12 8 1 3 3.</_></rects>
              <tilted>0</tilted></feature>
            <threshold>1.4176369877532125e-003</threshold>
            <left_node>1</left_node>
            <right_val>0.9999997019767761</right_val></_>
          <_>
            <feature>
              <rects>
                <_>
                  0 8 6 2 -1.</_>
                <_>
                  0 8 3 1 2.</_>
                <_>
                  3 9 3 1 2.</_></rects>
              <tilted>0</tilted></feature>
            <threshold>3.9835128700360656e-004</threshold>
            <left_val>-1.</left_val>
            <right_val>1.0000009536743164</right_val></_></_>
        <_>
          <_>
            <feature>
              <rects>
                <_>
                  0 0 3 10 -1.</_>
                <_>
                  1 0 1 10 3.</_></rects>
              <tilted>0</tilted></feature>
            <threshold>1.6813090041978285e-005</threshold>
            <left_val>-1.</left_val>
            <right_val>1.</right_val></_></_>
        <_>
          <_>
            <feature>
              <rects>
                <_>
                  2 1 14 4 -1.</_>
                <_>
                  2 1 7 2 2.</_>
                <_>
                  9 3 7 2 2.</_></rects>
              <tilted>0</tilted></feature>
            <threshold>-1.1601030128076673e-003</threshold>
            <left_val>1.</left_val>
            <right_node>1</right_node></_>
          <_>
            <feature>
              <rects>
                <_>
                  0 0 2 1 -1.</_>
                <_>
                  1 0 1 1 2.</_></rects>
              <tilted>0</tilted></feature>
            <threshold>-4.3858459684997797e-004</threshold>
            <left_val>-1.</left_val>
            <right_val>-1.</right_val></_></_>
        <_>
          <_>
            <feature>
              <rects>
                <_>
                  6 13 6 4 -1.</_>
                <_>
                  6 15 6 2 2.</_></rects>
              <tilted>0</tilted></feature>
            <threshold>2.1613159333355725e-004</threshold>
            <left_node>1</left_node>
            <right_val>1.</right_val></_>
          <_>
            <feature>
              <rects>
                <_>
                  0 0 2 1 -1.</_>
                <_>
                  1 0 1 1 2.</_></rects>
              <tilted>0</tilted></feature>
            <threshold>-7.7729288022965193e-005</threshold>
            <left_val>-1.</left_val>
            <right_val>1.</right_val></_></_>
        <_>
          <_>
            <feature>
              <rects>
                <_>
                  0 0 2 8 -1.</_>
                <_>
                  0 0 1 4 2.</_>
                <_>
                  1 4 1 4 2.</_></rects>
              <tilted>0</tilted></feature>
            <threshold>-1.0972640011459589e-003</threshold>
            <left_val>1.</left_val>
            <right_node>1</right_node></_>
          <_>
            <feature>
              <rects>
                <_>
                  0 0 2 1 -1.</_>
                <_>
                  1 0 1 1 2.</_></rects>
              <tilted>0</tilted></feature>
            <threshold>-3.5751599352806807e-003</threshold>
            <left_val>0.</left_val>
            <right_val>-1.</right_val></_></_>
        <_>
          <_>
            <feature>
              <rects>
                <_>
                  0 0 4 12 -1.</_>
                <_>
                  1 0 2 12 2.</_></rects>
              <tilted>0</tilted></feature>
            <threshold>3.3996489946730435e-005</threshold>
            <left_val>-1.</left_val>
            <right_val>1.</right_val></_></_>
        <_>
          <_>
            <feature>
              <rects>
                <_>
                  3 13 10 6 -1.</_>
                <_>
                  3 15 10 2 3.</_></rects>
              <tilted>0</tilted></feature>
            <threshold>1.9399949815124273e-003</threshold>
            <left_node>1</left_node>
            <right_val>1.</right_val></_>
          <_>
            <feature>
              <rects>
                <_>
                  0 0 15 5 -1.</_>
                <_>
                  5 0 5 5 3.</_></rects>
              <tilted>0</tilted></feature>
            <threshold>0.0447445102035999</threshold>
            <left_val>-1.</left_val>
            <right_val>1.0000020265579224</right_val></_></_>
        <_>
          <_>
            <feature>
              <rects>
                <_>
                  6 1 13 3 -1.</_>
                <_>
                  5 2 13 1 3.</_></rects>
              <tilted>1</tilted></feature>
            <threshold>4.0420170989818871e-004</threshold>
            <left_val>-1.</left_val>
            <right_node>1</right_node></_>
          <_>
            <feature>
              <rects>
                <_>
                  7 6 2 12 -1.</_>
                <_>
                  7 9 2 6 2.</_></rects>
              <tilted>0</tilted></feature>
            <threshold>-6.1879161512479186e-004</threshold>
            <left_val>1.</left_val>
            <right_val>-1.</right_val></_></_>
        <_>
          <_>
            <feature>
              <rects>
                <_>
                  10 9 5 6 -1.</_>
                <_>
                  10 9 5 3 2.</_></rects>
              <tilted>1</tilted></feature>
            <threshold>-3.5789560060948133e-003</threshold>
            <left_node>1</left_node>
            <right_val>-1.</right_val></_>
          <_>
            <feature>
              <rects>
                <_>
                  0 8 4 1 -1.</_>
                <_>
                  2 8 2 1 2.</_></rects>
              <tilted>0</tilted></feature>
            <threshold>3.6963028833270073e-004</threshold>
            <left_val>1.</left_val>
            <right_val>-1.0000050067901611</right_val></_></_>
        <_>
          <_>
            <feature>
              <rects>
                <_>
                  3 1 16 3 -1.</_>
                <_>
                  7 5 8 3 2.</_></rects>
              <tilted>1</tilted></feature>
            <threshold>-1.5060090227052569e-003</threshold>
            <left_node>1</left_node>
            <right_val>-0.9976040124893189</right_val></_>
          <_>
            <feature>
              <rects>
                <_>
                  7 1 2 3 -1.</_>
                <_>
                  7 1 1 3 2.</_></rects>
              <tilted>1</tilted></feature>
            <threshold>0.0142465196549892</threshold>
            <left_val>1.</left_val>
            <right_val>-1.0000230073928833</right_val></_></_>
        <_>
          <_>
            <feature>
              <rects>
                <_>
                  8 8 1 12 -1.</_>
                <_>
                  8 14 1 6 2.</_></rects>
              <tilted>0</tilted></feature>
            <threshold>4.0049250237643719e-003</threshold>
            <left_node>1</left_node>
            <right_val>0.9115170836448669</right_val></_>
          <_>
            <feature>
              <rects>
                <_>
                  4 9 9 1 -1.</_>
                <_>
                  7 9 3 1 3.</_></rects>
              <tilted>0</tilted></feature>
            <threshold>7.7180360676720738e-004</threshold>
            <left_val>-1.</left_val>
            <right_val>1.0000009536743164</right_val></_></_>
        <_>
          <_>
            <feature>
              <rects>
                <_>
                  0 7 2 9 -1.</_>
                <_>
                  1 7 1 9 2.</_></rects>
              <tilted>0</tilted></feature>
            <threshold>-9.0013217413797975e-004</threshold>
            <left_val>1.</left_val>
            <right_node>1</right_node></_>
          <_>
            <feature>
              <rects>
                <_>
                  11 1 1 18 -1.</_>
                <_>
                  11 10 1 9 2.</_></rects>
              <tilted>0</tilted></feature>
            <threshold>0.0200973208993673</threshold>
            <left_val>-1.</left_val>
            <right_val>1.0001399517059326</right_val></_></_>
        <_>
          <_>
            <feature>
              <rects>
                <_>
                  0 0 13 4 -1.</_>
                <_>
                  0 1 13 2 2.</_></rects>
              <tilted>0</tilted></feature>
            <threshold>-2.4599299649707973e-004</threshold>
            <left_val>1.</left_val>
            <right_node>1</right_node></_>
          <_>
            <feature>
              <rects>
                <_>
                  0 0 2 1 -1.</_>
                <_>
                  1 0 1 1 2.</_></rects>
              <tilted>0</tilted></feature>
            <threshold>-1.8476169789209962e-003</threshold>
            <left_val>-1.</left_val>
            <right_val>-1.</right_val></_></_>
        <_>
          <_>
            <feature>
              <rects>
                <_>
                  0 0 2 1 -1.</_>
                <_>
                  1 0 1 1 2.</_></rects>
              <tilted>0</tilted></feature>
            <threshold>0.</threshold>
            <left_val>0.</left_val>
            <right_val>-1.</right_val></_></_>
        <_>
          <_>
            <feature>
              <rects>
                <_>
                  0 0 2 1 -1.</_>
                <_>
                  1 0 1 1 2.</_></rects>
              <tilted>0</tilted></feature>
            <threshold>0.</threshold>
            <left_val>0.</left_val>
            <right_val>-1.</right_val></_></_>
        <_>
          <_>
            <feature>
              <rects>
                <_>
                  0 0 2 1 -1.</_>
                <_>
                  1 0 1 1 2.</_></rects>
              <tilted>0</tilted></feature>
            <threshold>0.</threshold>
            <left_val>0.</left_val>
            <right_val>-1.</right_val></_></_>
        <_>
          <_>
            <feature>
              <rects>
                <_>
                  0 0 6 3 -1.</_>
                <_>
                  0 1 6 1 3.</_></rects>
              <tilted>0</tilted></feature>
            <threshold>1.7573989680386148e-005</threshold>
            <left_val>-1.</left_val>
            <right_val>1.</right_val></_></_>
        <_>
          <_>
            <feature>
              <rects>
                <_>
                  6 0 12 18 -1.</_>
                <_>
                  10 6 4 6 9.</_></rects>
              <tilted>0</tilted></feature>
            <threshold>-6.9417241029441357e-003</threshold>
            <left_val>1.</left_val>
            <right_node>1</right_node></_>
          <_>
            <feature>
              <rects>
                <_>
                  0 0 2 1 -1.</_>
                <_>
                  1 0 1 1 2.</_></rects>
              <tilted>0</tilted></feature>
            <threshold>0.</threshold>
            <left_val>0.</left_val>
            <right_val>-1.</right_val></_></_>
        <_>
          <_>
            <feature>
              <rects>
                <_>
                  0 0 20 14 -1.</_>
                <_>
                  10 0 10 14 2.</_></rects>
              <tilted>0</tilted></feature>
            <threshold>7.6070348732173443e-003</threshold>
            <left_val>-1.</left_val>
            <right_val>1.</right_val></_></_>
        <_>
          <_>
            <feature>
              <rects>
                <_>
                  9 7 10 6 -1.</_>
                <_>
                  9 9 10 2 3.</_></rects>
              <tilted>0</tilted></feature>
            <threshold>5.7865860871970654e-003</threshold>
            <left_node>1</left_node>
            <right_val>1.</right_val></_>
          <_>
            <feature>
              <rects>
                <_>
                  0 0 1 4 -1.</_>
                <_>
                  0 1 1 2 2.</_></rects>
              <tilted>0</tilted></feature>
            <threshold>-2.9578679241240025e-003</threshold>
            <left_val>1.</left_val>
            <right_val>-1.</right_val></_></_>
        <_>
          <_>
            <feature>
              <rects>
                <_>
                  0 0 2 14 -1.</_>
                <_>
                  1 0 1 14 2.</_></rects>
              <tilted>0</tilted></feature>
            <threshold>-1.7775879314285703e-005</threshold>
            <left_val>1.</left_val>
            <right_node>1</right_node></_>
          <_>
            <feature>
              <rects>
                <_>
                  0 0 2 1 -1.</_>
                <_>
                  1 0 1 1 2.</_></rects>
              <tilted>0</tilted></feature>
            <threshold>-9.5305452123284340e-004</threshold>
            <left_val>0.</left_val>
            <right_val>-1.</right_val></_></_>
        <_>
          <_>
            <feature>
              <rects>
                <_>
                  0 0 2 1 -1.</_>
                <_>
                  1 0 1 1 2.</_></rects>
              <tilted>0</tilted></feature>
            <threshold>0.</threshold>
            <left_val>0.</left_val>
            <right_val>-1.</right_val></_></_>
        <_>
          <_>
            <feature>
              <rects>
                <_>
                  0 0 3 15 -1.</_>
                <_>
                  1 5 1 5 9.</_></rects>
              <tilted>0</tilted></feature>
            <threshold>9.8397213150747120e-005</threshold>
            <left_val>-1.</left_val>
            <right_val>1.</right_val></_></_>
        <_>
          <_>
            <feature>
              <rects>
                <_>
                  0 0 6 14 -1.</_>
                <_>
                  3 0 3 14 2.</_></rects>
              <tilted>0</tilted></feature>
            <threshold>-5.5105239152908325e-004</threshold>
            <left_val>1.</left_val>
            <right_val>-1.</right_val></_></_>
        <_>
          <_>
            <feature>
              <rects>
                <_>
                  0 0 6 3 -1.</_>
                <_>
                  0 1 6 1 3.</_></rects>
              <tilted>0</tilted></feature>
            <threshold>1.7573989680386148e-005</threshold>
            <left_val>-1.</left_val>
            <right_val>1.</right_val></_></_>
        <_>
          <_>
            <feature>
              <rects>
                <_>
                  1 0 10 1 -1.</_>
                <_>
                  1 0 5 1 2.</_></rects>
              <tilted>1</tilted></feature>
            <threshold>2.4417180102318525e-003</threshold>
            <left_val>-1.</left_val>
            <right_val>1.</right_val></_></_>
        <_>
          <_>
            <feature>
              <rects>
                <_>
                  0 0 4 1 -1.</_>
                <_>
                  1 0 2 1 2.</_></rects>
              <tilted>0</tilted></feature>
            <threshold>3.3233480062335730e-003</threshold>
            <left_val>-1.</left_val>
            <right_val>1.</right_val></_></_>
        <_>
          <_>
            <feature>
              <rects>
                <_>
                  2 0 10 1 -1.</_>
                <_>
                  2 0 5 1 2.</_></rects>
              <tilted>1</tilted></feature>
            <threshold>9.0316627174615860e-003</threshold>
            <left_val>-1.</left_val>
            <right_val>1.</right_val></_></_>
        <_>
          <_>
            <feature>
              <rects>
                <_>
                  0 0 4 4 -1.</_>
                <_>
                  0 0 2 2 2.</_>
                <_>
                  2 2 2 2 2.</_></rects>
              <tilted>0</tilted></feature>
            <threshold>-4.2281890637241304e-004</threshold>
            <left_val>1.</left_val>
            <right_node>1</right_node></_>
          <_>
            <feature>
              <rects>
                <_>
                  0 0 2 1 -1.</_>
                <_>
                  1 0 1 1 2.</_></rects>
              <tilted>0</tilted></feature>
            <threshold>-1.1065490252804011e-004</threshold>
            <left_val>-1.</left_val>
            <right_val>-1.</right_val></_></_>
        <_>
          <_>
            <feature>
              <rects>
                <_>
                  2 14 12 6 -1.</_>
                <_>
                  6 16 4 2 9.</_></rects>
              <tilted>0</tilted></feature>
            <threshold>2.6925799902528524e-003</threshold>
            <left_val>-1.</left_val>
            <right_val>1.</right_val></_></_>
        <_>
          <_>
            <feature>
              <rects>
                <_>
                  0 0 2 16 -1.</_>
                <_>
                  0 0 1 8 2.</_>
                <_>
                  1 8 1 8 2.</_></rects>
              <tilted>0</tilted></feature>
            <threshold>2.5442698970437050e-003</threshold>
            <left_val>-1.</left_val>
            <right_val>1.</right_val></_></_>
        <_>
          <_>
            <feature>
              <rects>
                <_>
                  0 0 2 1 -1.</_>
                <_>
                  1 0 1 1 2.</_></rects>
              <tilted>0</tilted></feature>
            <threshold>0.</threshold>
            <left_val>0.</left_val>
            <right_val>-1.</right_val></_></_>
        <_>
          <_>
            <feature>
              <rects>
                <_>
                  0 0 12 4 -1.</_>
                <_>
                  0 1 12 2 2.</_></rects>
              <tilted>0</tilted></feature>
            <threshold>1.0444699728395790e-004</threshold>
            <left_val>-1.</left_val>
            <right_val>1.</right_val></_></_>
        <_>
          <_>
            <feature>
              <rects>
                <_>
                  1 1 10 1 -1.</_>
                <_>
                  1 1 5 1 2.</_></rects>
              <tilted>1</tilted></feature>
            <threshold>4.5917689567431808e-004</threshold>
            <left_val>-1.</left_val>
